{"max_depth": 3, "n_trees": 60, "n_classes": 2, "n_features": 8, "trees": [[{"feature": [6, 4, 5, 7, 7, 7, 4, -2, -2, -2, -2, -2, -2, -2, -2], "threshold": [9.5, 4.5, 0.5, 4.5, 5.5, 3.5, 5.5, 0, 0, 0, 0, 0, 0, 0, 0], "children_left": [1, 3, 5, 7, 9, 11, 13, -1, -1, -1, -1, -1, -1, -1, -1], "children_right": [2, 4, 6, 8, 10, 12, 14, -1, -1, -1, -1, -1, -1, -1, -1], "value": [0, 0, 0, 0, 0, 0, 0, 0.216000021, -0.34576273, 0.591067314, 0.219230771, 0.203374699, -0.247727275, -0.418949038, 0.245070428], "parent": [-1, 0, 0, 1, 1, 2, 2, 3, 3, 4, 4, 5, 5, 6, 6], "depth": [0, 1, 1, 2, 2, 2, 2, 3, 3, 3, 3, 3, 3, 3, 3], "iLeaf": [7, 8, 9, 10, 11, 12, 13, 14]}], [{"feature": [6, 4, 4, 6, 7, 3, 6, -2, -2, -2, -2, -2, -2, -2, -2], "threshold": [10.5, 4.5, 5.5, 4.5, 4.5, 3.5, 13.5, 0, 0, 0, 0, 0, 0, 0, 0], "children_left": [1, 3, 5, 7, 9, 11, 13, -1, -1, -1, -1, -1, -1, -1, -1], "children_right": [2, 4, 6, 8, 10, 12, 14, -1, -1, -1, -1, -1, -1, -1, -1], "value": [0, 0, 0, 0, 0, 0, 0, 0.24639231, -0.256482244, 0.457284153, 0.184845209, -0.162855357, -0.405960947, 0.254656523, -0.0879566073], "parent": [-1, 0, 0, 1, 1, 2, 2, 3, 3, 4, 4, 5, 5, 6, 6], "depth": [0, 1, 1, 2, 2, 2, 2, 3, 3, 3, 3, 3, 3, 3, 3], "iLeaf": [7, 8, 9, 10, 11, 12, 13, 14]}], [{"feature": [6, 4, 7, 3, 7, 4, 5, -2, -2, -2, -2, -2, -2, -2, -2], "threshold": [8.5, 4.5, 3.5, 3.5, 5.5, 4.5, 0.5, 0, 0, 0, 0, 0, 0, 0, 0], "children_left": [1, 3, 5, 7, 9, 11, 13, -1, -1, -1, -1, -1, -1, -1, -1], "children_right": [2, 4, 6, 8, 10, 12, 14, -1, -1, -1, -1, -1, -1, -1, -1], "value": [0, 0, 0, 0, 0, 0, 0, 0.218059078, -0.329262674, 0.398895562, 0.177020848, -0.162122145, 0.158482656, -0.144347399, -0.335022986], "parent": [-1, 0, 0, 1, 1, 2, 2, 3, 3, 4, 4, 5, 5, 6, 6], "depth": [0, 1, 1, 2, 2, 2, 2, 3, 3, 3, 3, 3, 3, 3, 3], "iLeaf": [7, 8, 9, 10, 11, 12, 13, 14]}], [{"feature": [6, 4, 3, 1, 7, 7, 1, -2, -2, -2, -2, -2, -2, -2, -2], "threshold": [11.5, 4.5, 3.5, 0.901253819, 4.5, 2.5, -1.15734601, 0, 0, 0, 0, 0, 0, 0, 0], "children_left": [1, 3, 5, 7, 9, 11, 13, -1, -1, -1, -1, -1, -1, -1, -1], "children_right": [2, 4, 6, 8, 10, 12, 14, -1, -1, -1, -1, -1, -1, -1, -1], "value": [0, 0, 0, 0, 0, 0, 0, -0.140795544, 0.256712317, 0.356371224, 0.100496486, 0.0582075901, -0.156995922, -0.105251603, -0.315508008], "parent": [-1, 0, 0, 1, 1, 2, 2, 3, 3, 4, 4, 5, 5, 6, 6], "depth": [0, 1, 1, 2, 2, 2, 2, 3, 3, 3, 3, 3, 3, 3, 3], "iLeaf": [7, 8, 9, 10, 11, 12, 13, 14]}], [{"feature": [6, 5, 5, 3, 1, 6, 1, -2, -2, -2, -2, -2, -2, -2, -2], "threshold": [7.5, 1.5, 0.5, 4.5, 0.721788406, 12.5, 1.2824533, 0, 0, 0, 0, 0, 0, 0, 0], "children_left": [1, 3, 5, 7, 9, 11, 13, -1, -1, -1, -1, -1, -1, -1, -1], "children_right": [2, 4, 6, 8, 10, 12, 14, -1, -1, -1, -1, -1, -1, -1, -1], "value": [0, 0, 0, 0, 0, 0, 0, 0.332167715, -0.213956013, -0.38370496, 0.210353285, 0.186699301, -0.0407220572, -0.20746845, 0.11551521], "parent": [-1, 0, 0, 1, 1, 2, 2, 3, 3, 4, 4, 5, 5, 6, 6], "depth": [0, 1, 1, 2, 2, 2, 2, 3, 3, 3, 3, 3, 3, 3, 3], "iLeaf": [7, 8, 9, 10, 11, 12, 13, 14]}], [{"feature": [6, 7, 3, 5, 5, 7, 1, -2, -2, -2, -2, -2, -2, -2, -2], "threshold": [6.5, 5.5, 2.5, 1.5, 0.5, 2.5, -1.15006804, 0, 0, 0, 0, 0, 0, 0, 0], "children_left": [1, 3, 5, 7, 9, 11, 13, -1, -1, -1, -1, -1, -1, -1, -1], "children_right": [2, 4, 6, 8, 10, 12, 14, -1, -1, -1, -1, -1, -1, -1, -1], "value": [0, 0, 0, 0, 0, 0, 0, 0.321468204, -0.188155666, 0.0969954506, -0.258386642, 0.138692513, -0.0615425743, 0.111119777, -0.180075601], "parent": [-1, 0, 0, 1, 1, 2, 2, 3, 3, 4, 4, 5, 5, 6, 6], "depth": [0, 1, 1, 2, 2, 2, 2, 3, 3, 3, 3, 3, 3, 3, 3], "iLeaf": [7, 8, 9, 10, 11, 12, 13, 14]}], [{"feature": [6, 4, 4, 7, 7, 5, 6, -2, -2, -2, -2, -2, -2, -2, -2], "threshold": [6.5, 4.5, 5.5, 2.5, 5.5, 1.5, 12.5, 0, 0, 0, 0, 0, 0, 0, 0], "children_left": [1, 3, 5, 7, 9, 11, 13, -1, -1, -1, -1, -1, -1, -1, -1], "children_right": [2, 4, 6, 8, 10, 12, 14, -1, -1, -1, -1, -1, -1, -1, -1], "value": [0, 0, 0, 0, 0, 0, 0, 0.176478431, -0.156856924, 0.31845969, 0.0776141807, -0.053201396, -0.319507122, 0.234369129, -0.0105407732], "parent": [-1, 0, 0, 1, 1, 2, 2, 3, 3, 4, 4, 5, 5, 6, 6], "depth": [0, 1, 1, 2, 2, 2, 2, 3, 3, 3, 3, 3, 3, 3, 3], "iLeaf": [7, 8, 9, 10, 11, 12, 13, 14]}], [{"feature": [6, 4, 7, 3, 7, 3, 7, -2, -2, -2, -2, -2, -2, -2, -2], "threshold": [6.5, 4.5, 7.5, 2.5, 4.5, 3.5, 12.5, 0, 0, 0, 0, 0, 0, 0, 0], "children_left": [1, 3, 5, 7, 9, 11, 13, -1, -1, -1, -1, -1, -1, -1, -1], "children_right": [2, 4, 6, 8, 10, 12, 14, -1, -1, -1, -1, -1, -1, -1, -1], "value": [0, 0, 0, 0, 0, 0, 0, 0.141693369, -0.180970043, 0.310521066, 0.105723791, 0.0599865243, -0.149406776, -0.153080195, -0.321614921], "parent": [-1, 0, 0, 1, 1, 2, 2, 3, 3, 4, 4, 5, 5, 6, 6], "depth": [0, 1, 1, 2, 2, 2, 2, 3, 3, 3, 3, 3, 3, 3, 3], "iLeaf": [7, 8, 9, 10, 11, 12, 13, 14]}], [{"feature": [6, 4, 5, 1, 7, 6, 1, -2, -2, -2, -2, -2, -2, -2, -2], "threshold": [6.5, 4.5, 0.5, -0.877223611, 4.5, 12.5, -0.903978467, 0, 0, 0, 0, 0, 0, 0, 0], "children_left": [1, 3, 5, 7, 9, 11, 13, -1, -1, -1, -1, -1, -1, -1, -1], "children_right": [2, 4, 6, 8, 10, 12, 14, -1, -1, -1, -1, -1, -1, -1, -1], "value": [0, 0, 0, 0, 0, 0, 0, 0.229161516, -0.0798679814, 0.302816272, 0.0816330463, 0.129000112, -0.015435528, 0.0719254464, -0.1395666], "parent": [-1, 0, 0, 1, 1, 2, 2, 3, 3, 4, 4, 5, 5, 6, 6], "depth": [0, 1, 1, 2, 2, 2, 2, 3, 3, 3, 3, 3, 3, 3, 3], "iLeaf": [7, 8, 9, 10, 11, 12, 13, 14]}], [{"feature": [6, 4, 1, 1, 7, 6, 1, -2, -2, -2, -2, -2, -2, -2, -2], "threshold": [6.5, 4.5, -1.29097497, 0.891689539, 4.5, 12.5, 1.0711658, 0, 0, 0, 0, 0, 0, 0, 0], "children_left": [1, 3, 5, 7, 9, 11, 13, -1, -1, -1, -1, -1, -1, -1, -1], "children_right": [2, 4, 6, 8, 10, 12, 14, -1, -1, -1, -1, -1, -1, -1, -1], "value": [0, 0, 0, 0, 0, 0, 0, -0.0648912191, 0.206619725, 0.295665413, 0.062195424, 0.32991901, 0.0781491995, -0.0615468696, 0.152763903], "parent": [-1, 0, 0, 1, 1, 2, 2, 3, 3, 4, 4, 5, 5, 6, 6], "depth": [0, 1, 1, 2, 2, 2, 2, 3, 3, 3, 3, 3, 3, 3, 3], "iLeaf": [7, 8, 9, 10, 11, 12, 13, 14]}], [{"feature": [6, 4, 7, 3, 3, 6, 1, -2, -2, -2, -2, -2, -2, -2, -2], "threshold": [3.5, 4.5, 3.5, 0.5, 4.5, 13.5, -1.80570281, 0, 0, 0, 0, 0, 0, 0, 0], "children_left": [1, 3, 5, 7, 9, 11, 13, -1, -1, -1, -1, -1, -1, -1, -1], "children_right": [2, 4, 6, 8, 10, 12, 14, -1, -1, -1, -1, -1, -1, -1, -1], "value": [0, 0, 0, 0, 0, 0, 0, 0.211164713, -0.0562309437, 0.290418923, -0.24995333, 0.107543848, -0.0625865906, 0.358033359, -0.0991871879], "parent": [-1, 0, 0, 1, 1, 2, 2, 3, 3, 4, 4, 5, 5, 6, 6], "depth": [0, 1, 1, 2, 2, 2, 2, 3, 3, 3, 3, 3, 3, 3, 3], "iLeaf": [7, 8, 9, 10, 11, 12, 13, 14]}], [{"feature": [5, 6, 5, 7, 3, 6, 1, -2, -2, -2, -2, -2, -2, -2, -2], "threshold": [0.5, 7.5, 1.5, 6.5, 1.5, 13.5, 0.759735823, 0, 0, 0, 0, 0, 0, 0, 0], "children_left": [1, 3, 5, 7, 9, 11, 13, -1, -1, -1, -1, -1, -1, -1, -1], "children_right": [2, 4, 6, 8, 10, 12, 14, -1, -1, -1, -1, -1, -1, -1, -1], "value": [0, 0, 0, 0, 0, 0, 0, 0.263637006, -0.0502957031, 0.0953228846, -0.0156451408, 0.00825321302, -0.12963438, -0.272892535, -0.0624651723], "parent": [-1, 0, 0, 1, 1, 2, 2, 3, 3, 4, 4, 5, 5, 6, 6], "depth": [0, 1, 1, 2, 2, 2, 2, 3, 3, 3, 3, 3, 3, 3, 3], "iLeaf": [7, 8, 9, 10, 11, 12, 13, 14]}], [{"feature": [3, 6, 3, 7, 1, 1, 1, -2, -2, -2, -2, -2, -2, -2, -2], "threshold": [3.5, 6.5, 4.5, 5.5, 1.3640182, -0.89989543, 1.1595788, 0, 0, 0, 0, 0, 0, 0, 0], "children_left": [1, 3, 5, 7, 9, 11, 13, -1, -1, -1, -1, -1, -1, -1, -1], "children_right": [2, 4, 6, 8, 10, 12, 14, -1, -1, -1, -1, -1, -1, -1, -1], "value": [0, 0, 0, 0, 0, 0, 0, 0.236702368, -0.109438211, 0.00423595961, 0.216016844, 0.108423099, -0.0949328765, -0.221858144, 0.08293055], "parent": [-1, 0, 0, 1, 1, 2, 2, 3, 3, 4, 4, 5, 5, 6, 6], "depth": [0, 1, 1, 2, 2, 2, 2, 3, 3, 3, 3, 3, 3, 3, 3], "iLeaf": [7, 8, 9, 10, 11, 12, 13, 14]}], [{"feature": [4, 1, 6, 7, 1, 7, 3, -2, -2, -2, -2, -2, -2, -2, -2], "threshold": [4.5, -2.09967422, 12.5, 10.0, 1.99768329, 2.5, 2.5, 0, 0, 0, 0, 0, 0, 0, 0], "children_left": [1, 3, 5, 7, 9, 11, 13, -1, -1, -1, -1, -1, -1, -1, -1], "children_right": [2, 4, 6, 8, 10, 12, 14, -1, -1, -1, -1, -1, -1, -1, -1], "value": [0, 0, 0, 0, 0, 0, 0, 0.3746005, 0.0327426195, -0.0891790539, 0.31565091, 0.206351236, 0.0484070741, 0.00235019019, -0.10960073], "parent": [-1, 0, 0, 1, 1, 2, 2, 3, 3, 4, 4, 5, 5, 6, 6], "depth": [0, 1, 1, 2, 2, 2, 2, 3, 3, 3, 3, 3, 3, 3, 3], "iLeaf": [7, 8, 9, 10, 11, 12, 13, 14]}], [{"feature": [7, 1, 7, 6, 1, 1, 2, -2, -2, -2, -2, -2, -2, -2, -2], "threshold": [9.5, -0.671128452, 12.5, 13.5, 0.823601663, 1.78183448, 4.89257812, 0, 0, 0, 0, 0, 0, 0, 0], "children_left": [1, 3, 5, 7, 9, 11, 13, -1, -1, -1, -1, -1, -1, -1, -1], "children_right": [2, 4, 6, 8, 10, 12, 14, -1, -1, -1, -1, -1, -1, -1, -1], "value": [0, 0, 0, 0, 0, 0, 0, 0.164919257, 0.0266362783, -0.0369129442, 0.101451181, -0.108298771, 0.414663047, -0.304646283, -0.0566024482], "parent": [-1, 0, 0, 1, 1, 2, 2, 3, 3, 4, 4, 5, 5, 6, 6], "depth": [0, 1, 1, 2, 2, 2, 2, 3, 3, 3, 3, 3, 3, 3, 3], "iLeaf": [7, 8, 9, 10, 11, 12, 13, 14]}], [{"feature": [4, 1, 6, 0, 1, 6, 7, -2, -2, -2, -2, -2, -2, -2, -2], "threshold": [5.5, -2.09967422, 10.5, 2.14601755, 1.99742365, 4.5, 8.5, 0, 0, 0, 0, 0, 0, 0, 0], "children_left": [1, 3, 5, 7, 9, 11, 13, -1, -1, -1, -1, -1, -1, -1, -1], "children_right": [2, 4, 6, 8, 10, 12, 14, -1, -1, -1, -1, -1, -1, -1, -1], "value": [0, 0, 0, 0, 0, 0, 0, 0.346269399, 0.0102678537, -0.0437950417, 0.250932962, 0.285006225, 0.162611648, 0.0341379941, -0.143233612], "parent": [-1, 0, 0, 1, 1, 2, 2, 3, 3, 4, 4, 5, 5, 6, 6], "depth": [0, 1, 1, 2, 2, 2, 2, 3, 3, 3, 3, 3, 3, 3, 3], "iLeaf": [7, 8, 9, 10, 11, 12, 13, 14]}], [{"feature": [5, 7, 3, 3, 2, 0, 2, -2, -2, -2, -2, -2, -2, -2, -2], "threshold": [1.5, 1.5, 2.5, 4.5, -8.58398438, 1.07373869, -3.13476562, 0, 0, 0, 0, 0, 0, 0, 0], "children_left": [1, 3, 5, 7, 9, 11, 13, -1, -1, -1, -1, -1, -1, -1, -1], "children_right": [2, 4, 6, 8, 10, 12, 14, -1, -1, -1, -1, -1, -1, -1, -1], "value": [0, 0, 0, 0, 0, 0, 0, 0.0902110934, -0.200326756, -0.199559361, -0.00938544888, -0.191093788, 0.0364987068, -0.15265961, -0.299160838], "parent": [-1, 0, 0, 1, 1, 2, 2, 3, 3, 4, 4, 5, 5, 6, 6], "depth": [0, 1, 1, 2, 2, 2, 2, 3, 3, 3, 3, 3, 3, 3, 3], "iLeaf": [7, 8, 9, 10, 11, 12, 13, 14]}], [{"feature": [6, 5, 1, 4, 3, 3, 6, -2, -2, -2, -2, -2, -2, -2, -2], "threshold": [3.5, 0.5, -0.671919644, 4.5, 0.5, 4.5, 14.5, 0, 0, 0, 0, 0, 0, 0, 0], "children_left": [1, 3, 5, 7, 9, 11, 13, -1, -1, -1, -1, -1, -1, -1, -1], "children_right": [2, 4, 6, 8, 10, 12, 14, -1, -1, -1, -1, -1, -1, -1, -1], "value": [0, 0, 0, 0, 0, 0, 0, 0.0738148093, 0.262614071, 0.126018763, -0.124002494, 0.0779802054, -0.169948786, -0.0190671813, -0.185485646], "parent": [-1, 0, 0, 1, 1, 2, 2, 3, 3, 4, 4, 5, 5, 6, 6], "depth": [0, 1, 1, 2, 2, 2, 2, 3, 3, 3, 3, 3, 3, 3, 3], "iLeaf": [7, 8, 9, 10, 11, 12, 13, 14]}], [{"feature": [5, 6, 3, 4, 1, 6, 2, -2, -2, -2, -2, -2, -2, -2, -2], "threshold": [0.5, 3.5, 4.5, 4.5, -1.29097486, 14.5, 2.13867188, 0, 0, 0, 0, 0, 0, 0, 0], "children_left": [1, 3, 5, 7, 9, 11, 13, -1, -1, -1, -1, -1, -1, -1, -1], "children_right": [2, 4, 6, 8, 10, 12, 14, -1, -1, -1, -1, -1, -1, -1, -1], "value": [0, 0, 0, 0, 0, 0, 0, 0.0552792661, 0.249713108, 0.158972636, 0.00554140983, -0.0197534896, -0.192835033, -0.125240192, -0.296133071], "parent": [-1, 0, 0, 1, 1, 2, 2, 3, 3, 4, 4, 5, 5, 6, 6], "depth": [0, 1, 1, 2, 2, 2, 2, 3, 3, 3, 3, 3, 3, 3, 3], "iLeaf": [7, 8, 9, 10, 11, 12, 13, 14]}], [{"feature": [7, 1, 2, 3, 5, 7, 2, -2, -2, -2, -2, -2, -2, -2, -2], "threshold": [11.5, 1.80226433, 6.65039062, 0.5, 0.5, 12.5, 7.35351562, 0, 0, 0, 0, 0, 0, 0, 0], "children_left": [1, 3, 5, 7, 9, 11, 13, -1, -1, -1, -1, -1, -1, -1, -1], "children_right": [2, 4, 6, 8, 10, 12, 14, -1, -1, -1, -1, -1, -1, -1, -1], "value": [0, 0, 0, 0, 0, 0, 0, 0.0513980165, -0.0181641169, 0.268628687, 0.055558566, -0.0914473832, -0.255478561, 0.408343315, -0.173167869], "parent": [-1, 0, 0, 1, 1, 2, 2, 3, 3, 4, 4, 5, 5, 6, 6], "depth": [0, 1, 1, 2, 2, 2, 2, 3, 3, 3, 3, 3, 3, 3, 3], "iLeaf": [7, 8, 9, 10, 11, 12, 13, 14]}], [{"feature": [5, 7, 1, 6, 2, 2, 2, -2, -2, -2, -2, -2, -2, -2, -2], "threshold": [1.5, 1.5, 0.727167666, 3.5, -8.58398438, -1.49414062, 0.380859375, 0, 0, 0, 0, 0, 0, 0, 0], "children_left": [1, 3, 5, 7, 9, 11, 13, -1, -1, -1, -1, -1, -1, -1, -1], "children_right": [2, 4, 6, 8, 10, 12, 14, -1, -1, -1, -1, -1, -1, -1, -1], "value": [0, 0, 0, 0, 0, 0, 0, 0.193294093, 0.0327661075, -0.154178858, -0.00790584367, -0.0936683565, -0.237370282, -0.125610068, 0.27369228], "parent": [-1, 0, 0, 1, 1, 2, 2, 3, 3, 4, 4, 5, 5, 6, 6], "depth": [0, 1, 1, 2, 2, 2, 2, 3, 3, 3, 3, 3, 3, 3, 3], "iLeaf": [7, 8, 9, 10, 11, 12, 13, 14]}], [{"feature": [1, 2, 1, 2, 6, 2, 2, -2, -2, -2, -2, -2, -2, -2, -2], "threshold": [-1.45146883, 7.41210938, 0.76347959, 1.90429688, 10.5, 1.02539062, -1.14257812, 0, 0, 0, 0, 0, 0, 0, 0], "children_left": [1, 3, 5, 7, 9, 11, 13, -1, -1, -1, -1, -1, -1, -1, -1], "children_right": [2, 4, 6, 8, 10, 12, 14, -1, -1, -1, -1, -1, -1, -1, -1], "value": [0, 0, 0, 0, 0, 0, 0, 0.0763541758, 0.279627293, 0.181305692, -0.259284496, 0.00297618588, -0.0609749891, -0.0477397367, 0.113052852], "parent": [-1, 0, 0, 1, 1, 2, 2, 3, 3, 4, 4, 5, 5, 6, 6], "depth": [0, 1, 1, 2, 2, 2, 2, 3, 3, 3, 3, 3, 3, 3, 3], "iLeaf": [7, 8, 9, 10, 11, 12, 13, 14]}], [{"feature": [4, 2, 6, 2, 0, 2, 6, -2, -2, -2, -2, -2, -2, -2, -2], "threshold": [5.5, 10.1074219, 10.5, -8.70117188, 1.02466238, -7.93945312, 13.5, 0, 0, 0, 0, 0, 0, 0, 0], "children_left": [1, 3, 5, 7, 9, 11, 13, -1, -1, -1, -1, -1, -1, -1, -1], "children_right": [2, 4, 6, 8, 10, 12, 14, -1, -1, -1, -1, -1, -1, -1, -1], "value": [0, 0, 0, 0, 0, 0, 0, -0.169178605, -0.00718863634, -0.321862936, -0.0614752062, -0.125503615, 0.177498803, 0.0469202809, -0.0383116826], "parent": [-1, 0, 0, 1, 1, 2, 2, 3, 3, 4, 4, 5, 5, 6, 6], "depth": [0, 1, 1, 2, 2, 2, 2, 3, 3, 3, 3, 3, 3, 3, 3], "iLeaf": [7, 8, 9, 10, 11, 12, 13, 14]}], [{"feature": [1, 0, 7, 7, -2, 1, 2, -2, -2, -2, -2, -2, -2, -2, -2], "threshold": [-2.1088264, 2.14601755, 12.5, 10.5, 0, 1.96920228, 4.89257812, 0, 0, 0, 0, 0, 0, -2.0, -2.0], "children_left": [1, 3, 5, 7, 13, 9, 11, -1, -1, -1, -1, -1, -1, -1, -1], "children_right": [2, 4, 6, 8, 14, 10, 12, -1, -1, -1, -1, -1, -1, -1, -1], "value": [0, 0, 0, 0, -0.0678770766, 0, 0, 0.304138422, 0.064975217, -0.00174237869, 0.215486482, -0.245438442, 0.00650928169, -0.0678770766, -0.0678770766], "parent": [-1, 0, 0, 1, 1, 2, 2, 3, 3, 5, 5, 6, 6, 4, 4], "depth": [0, 1, 1, 2, 2, 2, 2, 3, 3, 3, 3, 3, 3, 3, 3], "iLeaf": [7, 8, 9, 10, 11, 12, 13, 14]}], [{"feature": [6, 3, 7, 4, 0, 1, 7, -2, -2, -2, -2, -2, -2, -2, -2], "threshold": [14.5, 2.5, 3.5, 4.5, -2.76719427, -0.804725885, 5.5, 0, 0, 0, 0, 0, 0, 0, 0], "children_left": [1, 3, 5, 7, 9, 11, 13, -1, -1, -1, -1, -1, -1, -1, -1], "children_right": [2, 4, 6, 8, 10, 12, 14, -1, -1, -1, -1, -1, -1, -1, -1], "value": [0, 0, 0, 0, 0, 0, 0, -0.0211164691, 0.0527053587, -0.194583833, -0.021302728, -0.0147694033, -0.19096972, 0.206745699, -0.0871382058], "parent": [-1, 0, 0, 1, 1, 2, 2, 3, 3, 4, 4, 5, 5, 6, 6], "depth": [0, 1, 1, 2, 2, 2, 2, 3, 3, 3, 3, 3, 3, 3, 3], "iLeaf": [7, 8, 9, 10, 11, 12, 13, 14]}], [{"feature": [1, 6, 1, 7, 1, 7, 1, -2, -2, -2, -2, -2, -2, -2, -2], "threshold": [-0.629473507, 12.5, -0.587657571, 5.5, -2.10343122, 3.5, 0.877224326, 0, 0, 0, 0, 0, 0, 0, 0], "children_left": [1, 3, 5, 7, 9, 11, 13, -1, -1, -1, -1, -1, -1, -1, -1], "children_right": [2, 4, 6, 8, 10, 12, 14, -1, -1, -1, -1, -1, -1, -1, -1], "value": [0, 0, 0, 0, 0, 0, 0, 0.122985125, -0.0799449608, 0.288526773, -0.010863821, -0.377431571, 0.00286048744, -0.0249070749, 0.0422336683], "parent": [-1, 0, 0, 1, 1, 2, 2, 3, 3, 4, 4, 5, 5, 6, 6], "depth": [0, 1, 1, 2, 2, 2, 2, 3, 3, 3, 3, 3, 3, 3, 3], "iLeaf": [7, 8, 9, 10, 11, 12, 13, 14]}], [{"feature": [2, 0, 0, 1, -2, 4, 0, -2, -2, -2, -2, -2, -2, -2, -2], "threshold": [-10.4589844, 2.2571125, -3.12930775, -0.60162878, 0, 5.5, -2.45886755, 0, 0, 0, 0, 0, 0, -2.0, -2.0], "children_left": [1, 3, 5, 7, 13, 9, 11, -1, -1, -1, -1, -1, -1, -1, -1], "children_right": [2, 4, 6, 8, 14, 10, 12, -1, -1, -1, -1, -1, -1, -1, -1], "value": [0, 0, 0, 0, 0.214583203, 0, 0, -0.0543301366, -0.313422441, -0.437888741, 0.0994497612, 0.0714499131, -0.00342159811, 0.214583203, 0.214583203], "parent": [-1, 0, 0, 1, 1, 2, 2, 3, 3, 5, 5, 6, 6, 4, 4], "depth": [0, 1, 1, 2, 2, 2, 2, 3, 3, 3, 3, 3, 3, 3, 3], "iLeaf": [7, 8, 9, 10, 11, 12, 13, 14]}], [{"feature": [5, 2, 3, 1, 4, 6, 2, -2, -2, -2, -2, -2, -2, -2, -2], "threshold": [1.5, 10.1074219, 2.5, 1.99664402, 5.5, 9.5, -3.13476562, 0, 0, 0, 0, 0, 0, 0, 0], "children_left": [1, 3, 5, 7, 9, 11, 13, -1, -1, -1, -1, -1, -1, -1, -1], "children_right": [2, 4, 6, 8, 10, 12, 14, -1, -1, -1, -1, -1, -1, -1, -1], "value": [0, 0, 0, 0, 0, 0, 0, 0.00391057646, 0.161240354, -0.207753927, 0.0785816461, 0.144527063, -0.12138781, -0.0530330278, -0.250183135], "parent": [-1, 0, 0, 1, 1, 2, 2, 3, 3, 4, 4, 5, 5, 6, 6], "depth": [0, 1, 1, 2, 2, 2, 2, 3, 3, 3, 3, 3, 3, 3, 3], "iLeaf": [7, 8, 9, 10, 11, 12, 13, 14]}], [{"feature": [7, 0, 2, 0, 0, 3, 1, -2, -2, -2, -2, -2, -2, -2, -2], "threshold": [10.5, -2.91925192, -4.48242188, -2.94281697, -2.45886755, 3.5, 0.0741506442, 0, 0, 0, 0, 0, 0, 0, 0], "children_left": [1, 3, 5, 7, 9, 11, 13, -1, -1, -1, -1, -1, -1, -1, -1], "children_right": [2, 4, 6, 8, 10, 12, 14, -1, -1, -1, -1, -1, -1, -1, -1], "value": [0, 0, 0, 0, 0, 0, 0, -0.0744526461, -0.356165618, 0.110126212, 0.00125777069, -0.34720844, 0.122685775, -0.0996879265, 0.0254030414], "parent": [-1, 0, 0, 1, 1, 2, 2, 3, 3, 4, 4, 5, 5, 6, 6], "depth": [0, 1, 1, 2, 2, 2, 2, 3, 3, 3, 3, 3, 3, 3, 3], "iLeaf": [7, 8, 9, 10, 11, 12, 13, 14]}], [{"feature": [6, 3, 3, 1, 6, 3, 2, -2, -2, -2, -2, -2, -2, -2, -2], "threshold": [14.5, 3.5, 2.5, 1.3640182, 8.5, 0.5, -0.146484375, 0, 0, 0, 0, 0, 0, 0, 0], "children_left": [1, 3, 5, 7, 9, 11, 13, -1, -1, -1, -1, -1, -1, -1, -1], "children_right": [2, 4, 6, 8, 10, 12, 14, -1, -1, -1, -1, -1, -1, -1, -1], "value": [0, 0, 0, 0, 0, 0, 0, 0.00730795087, 0.106342144, -0.172987103, -0.0223371573, -0.0296267625, -0.231290981, 0.176527083, -0.106852747], "parent": [-1, 0, 0, 1, 1, 2, 2, 3, 3, 4, 4, 5, 5, 6, 6], "depth": [0, 1, 1, 2, 2, 2, 2, 3, 3, 3, 3, 3, 3, 3, 3], "iLeaf": [7, 8, 9, 10, 11, 12, 13, 14]}], [{"feature": [1, 2, 1, -2, 1, 2, 6, -2, -2, -2, -2, -2, -2, -2, -2], "threshold": [-0.302961171, -12.3046875, -0.27202335, 0, -0.316933066, 3.19335938, 1.5, 0, 0, 0, 0, 0, 0, -2.0, -2.0], "children_left": [1, 3, 5, 13, 7, 9, 11, -1, -1, -1, -1, -1, -1, -1, -1], "children_right": [2, 4, 6, 14, 8, 10, 12, -1, -1, -1, -1, -1, -1, -1, -1], "value": [0, 0, 0, -0.373706341, 0, 0, 0, 0.023102548, 0.276883006, -0.305521131, 0.0165371709, 0.100101173, -0.016285032, -0.373706341, -0.373706341], "parent": [-1, 0, 0, 1, 1, 2, 2, 4, 4, 5, 5, 6, 6, 3, 3], "depth": [0, 1, 1, 2, 2, 2, 2, 3, 3, 3, 3, 3, 3, 3, 3], "iLeaf": [7, 8, 9, 10, 11, 12, 13, 14]}], [{"feature": [5, 7, 2, 6, 6, 0, 6, -2, -2, -2, -2, -2, -2, -2, -2], "threshold": [0.5, 12.5, -8.64257812, 3.5, 9.5, -2.4603076, 7.5, 0, 0, 0, 0, 0, 0, 0, 0], "children_left": [1, 3, 5, 7, 9, 11, 13, -1, -1, -1, -1, -1, -1, -1, -1], "children_right": [2, 4, 6, 8, 10, 12, 14, -1, -1, -1, -1, -1, -1, -1, -1], "value": [0, 0, 0, 0, 0, 0, 0, 0.149381638, 0.010789088, -0.395185679, -0.122470617, 0.173766971, -0.210043922, -0.0949191824, -0.00770322373], "parent": [-1, 0, 0, 1, 1, 2, 2, 3, 3, 4, 4, 5, 5, 6, 6], "depth": [0, 1, 1, 2, 2, 2, 2, 3, 3, 3, 3, 3, 3, 3, 3], "iLeaf": [7, 8, 9, 10, 11, 12, 13, 14]}], [{"feature": [1, 0, 2, 7, -2, 2, 2, -2, -2, -2, -2, -2, -2, -2, -2], "threshold": [-2.1353488, 2.14601755, 11.8652344, 10.0, 0, -5.18554688, 13.2128906, 0, 0, 0, 0, 0, 0, -2.0, -2.0], "children_left": [1, 3, 5, 7, 13, 9, 11, -1, -1, -1, -1, -1, -1, -1, -1], "children_right": [2, 4, 6, 8, 14, 10, 12, -1, -1, -1, -1, -1, -1, -1, -1], "value": [0, 0, 0, 0, -0.0907325372, 0, 0, 0.275555074, 0.0520948619, -0.0404026844, 0.0056631323, -0.30351299, 0.00657314528, -0.0907325372, -0.0907325372], "parent": [-1, 0, 0, 1, 1, 2, 2, 3, 3, 5, 5, 6, 6, 4, 4], "depth": [0, 1, 1, 2, 2, 2, 2, 3, 3, 3, 3, 3, 3, 3, 3], "iLeaf": [7, 8, 9, 10, 11, 12, 13, 14]}], [{"feature": [4, 6, 6, 3, 6, 7, 1, -2, -2, -2, -2, -2, -2, -2, -2], "threshold": [5.5, 10.5, 5.5, 0.5, 11.5, 6.5, 0.685315609, 0, 0, 0, 0, 0, 0, 0, 0], "children_left": [1, 3, 5, 7, 9, 11, 13, -1, -1, -1, -1, -1, -1, -1, -1], "children_right": [2, 4, 6, 8, 10, 12, 14, -1, -1, -1, -1, -1, -1, -1, -1], "value": [0, 0, 0, 0, 0, 0, 0, 0.0491366945, -0.0984476879, 0.0957323685, -0.00378891034, 0.253384501, -0.0610741526, -0.00989764743, 0.0840902925], "parent": [-1, 0, 0, 1, 1, 2, 2, 3, 3, 4, 4, 5, 5, 6, 6], "depth": [0, 1, 1, 2, 2, 2, 2, 3, 3, 3, 3, 3, 3, 3, 3], "iLeaf": [7, 8, 9, 10, 11, 12, 13, 14]}], [{"feature": [6, 4, 4, 1, 1, 2, 0, -2, -2, -2, -2, -2, -2, -2, -2], "threshold": [13.5, 4.5, 4.5, 0.877221584, -1.44494486, 6.76757812, 2.41675758, 0, 0, 0, 0, 0, 0, 0, 0], "children_left": [1, 3, 5, 7, 9, 11, 13, -1, -1, -1, -1, -1, -1, -1, -1], "children_right": [2, 4, 6, 8, 10, 12, 14, -1, -1, -1, -1, -1, -1, -1, -1], "value": [0, 0, 0, 0, 0, 0, 0, -0.062888369, 0.0436131656, 0.204083338, 0.0353530534, 0.0592714958, -0.141934931, -0.062381126, 0.0458558612], "parent": [-1, 0, 0, 1, 1, 2, 2, 3, 3, 4, 4, 5, 5, 6, 6], "depth": [0, 1, 1, 2, 2, 2, 2, 3, 3, 3, 3, 3, 3, 3, 3], "iLeaf": [7, 8, 9, 10, 11, 12, 13, 14]}], [{"feature": [0, 4, 0, -2, -2, 1, 0, -2, -2, -2, -2, -2, -2, -2, -2], "threshold": [-3.12930775, 5.5, -1.35934496, 0, 0, 1.41667283, -1.2255187, 0, 0, 0, 0, -2.0, -2.0, -2.0, -2.0], "children_left": [1, 3, 5, 11, 13, 7, 9, -1, -1, -1, -1, -1, -1, -1, -1], "children_right": [2, 4, 6, 12, 14, 8, 10, -1, -1, -1, -1, -1, -1, -1, -1], "value": [0, 0, 0, -0.370516181, 0.0932798311, 0, 0, 0.0167730022, 0.166432291, -0.164040372, -0.00259490986, -0.370516181, -0.370516181, 0.0932798311, 0.0932798311], "parent": [-1, 0, 0, 1, 1, 2, 2, 5, 5, 6, 6, 3, 3, 4, 4], "depth": [0, 1, 1, 2, 2, 2, 2, 3, 3, 3, 3, 3, 3, 3, 3], "iLeaf": [7, 8, 9, 10, 11, 12, 13, 14]}], [{"feature": [1, 5, 1, 2, 2, 2, 1, -2, -2, -2, -2, -2, -2, -2, -2], "threshold": [-0.302961171, 1.5, 0.0702546909, -12.3925781, 2.02148438, -0.087890625, 0.0858320668, 0, 0, 0, 0, 0, 0, 0, 0], "children_left": [1, 3, 5, 7, 9, 11, 13, -1, -1, -1, -1, -1, -1, -1, -1], "children_right": [2, 4, 6, 8, 10, 12, 14, -1, -1, -1, -1, -1, -1, -1, -1], "value": [0, 0, 0, 0, 0, 0, 0, -0.324242413, 0.0266306885, -0.214117557, 0.0281990934, 0.0380207784, -0.156580508, 0.298211455, -0.00178797834], "parent": [-1, 0, 0, 1, 1, 2, 2, 3, 3, 4, 4, 5, 5, 6, 6], "depth": [0, 1, 1, 2, 2, 2, 2, 3, 3, 3, 3, 3, 3, 3, 3], "iLeaf": [7, 8, 9, 10, 11, 12, 13, 14]}], [{"feature": [7, 1, 1, 2, 3, 2, 1, -2, -2, -2, -2, -2, -2, -2, -2], "threshold": [1.5, -1.23576307, -0.110128768, -5.12695312, 3.5, -7.00195312, 0.073176831, 0, 0, 0, 0, 0, 0, 0, 0], "children_left": [1, 3, 5, 7, 9, 11, 13, -1, -1, -1, -1, -1, -1, -1, -1], "children_right": [2, 4, 6, 8, 10, 12, 14, -1, -1, -1, -1, -1, -1, -1, -1], "value": [0, 0, 0, 0, 0, 0, 0, -0.247646675, 0.195511922, 0.0218458772, -0.082423903, 0.145352915, 0.00114698021, -0.131413624, -0.0159244165], "parent": [-1, 0, 0, 1, 1, 2, 2, 3, 3, 4, 4, 5, 5, 6, 6], "depth": [0, 1, 1, 2, 2, 2, 2, 3, 3, 3, 3, 3, 3, 3, 3], "iLeaf": [7, 8, 9, 10, 11, 12, 13, 14]}], [{"feature": [7, 1, 0, 0, 2, -2, -2, -2, -2, -2, -2, -2, -2, -2, -2], "threshold": [13.5, -2.1353488, -1.06122231, 2.14601755, 7.76367188, 0, 0, 0, 0, 0, 0, -2.0, -2.0, -2.0, -2.0], "children_left": [1, 3, 5, 7, 9, 11, 13, -1, -1, -1, -1, -1, -1, -1, -1], "children_right": [2, 4, 6, 8, 10, 12, 14, -1, -1, -1, -1, -1, -1, -1, -1], "value": [0, 0, 0, 0, 0, -0.0131884599, -0.28124845, 0.212280825, -0.0647229627, 0.00237715244, -0.0707908273, -0.0131884599, -0.0131884599, -0.28124845, -0.28124845], "parent": [-1, 0, 0, 1, 1, 2, 2, 3, 3, 4, 4, 5, 5, 6, 6], "depth": [0, 1, 1, 2, 2, 2, 2, 3, 3, 3, 3, 3, 3, 3, 3], "iLeaf": [7, 8, 9, 10, 11, 12, 13, 14]}], [{"feature": [0, 0, 0, 3, 1, 7, 2, -2, -2, -2, -2, -2, -2, -2, -2], "threshold": [2.88786793, 2.78336477, 2.92168331, 4.5, -0.556728363, 5.5, -3.07617188, 0, 0, 0, 0, 0, 0, 0, 0], "children_left": [1, 3, 5, 7, 9, 11, 13, -1, -1, -1, -1, -1, -1, -1, -1], "children_right": [2, 4, 6, 8, 10, 12, 14, -1, -1, -1, -1, -1, -1, -1, -1], "value": [0, 0, 0, 0, 0, 0, 0, 0.00434351945, -0.0564067066, -0.440458804, -0.0713429525, 0.392646372, 0.0764856413, 0.207408845, -0.0710056722], "parent": [-1, 0, 0, 1, 1, 2, 2, 3, 3, 4, 4, 5, 5, 6, 6], "depth": [0, 1, 1, 2, 2, 2, 2, 3, 3, 3, 3, 3, 3, 3, 3], "iLeaf": [7, 8, 9, 10, 11, 12, 13, 14]}], [{"feature": [2, 0, 2, 2, 1, 1, 6, -2, -2, -2, -2, -2, -2, -2, -2], "threshold": [-5.06835938, -0.249081522, -4.07226562, -6.12304688, 0.967708111, -0.238930106, 0.5, 0, 0, 0, 0, 0, 0, 0, 0], "children_left": [1, 3, 5, 7, 9, 11, 13, -1, -1, -1, -1, -1, -1, -1, -1], "children_right": [2, 4, 6, 8, 10, 12, 14, -1, -1, -1, -1, -1, -1, -1, -1], "value": [0, 0, 0, 0, 0, 0, 0, 0.095052354, -0.121703386, -0.117849365, 0.0476588272, 0.177410901, 0.00677575078, 0.098016642, -0.00182997319], "parent": [-1, 0, 0, 1, 1, 2, 2, 3, 3, 4, 4, 5, 5, 6, 6], "depth": [0, 1, 1, 2, 2, 2, 2, 3, 3, 3, 3, 3, 3, 3, 3], "iLeaf": [7, 8, 9, 10, 11, 12, 13, 14]}], [{"feature": [0, 1, 1, -2, -2, 0, 0, -2, -2, -2, -2, -2, -2, -2, -2], "threshold": [-3.12930775, 0.749804735, 1.99664402, 0, 0, 0.170412838, -0.210966736, 0, 0, 0, 0, -2.0, -2.0, -2.0, -2.0], "children_left": [1, 3, 5, 11, 13, 7, 9, -1, -1, -1, -1, -1, -1, -1, -1], "children_right": [2, 4, 6, 12, 14, 8, 10, -1, -1, -1, -1, -1, -1, -1, -1], "value": [0, 0, 0, -0.0296839774, -0.35364151, 0, 0, -0.013229182, 0.013489034, 0.217524588, -0.0178817455, -0.0296839774, -0.0296839774, -0.35364151, -0.35364151], "parent": [-1, 0, 0, 1, 1, 2, 2, 5, 5, 6, 6, 3, 3, 4, 4], "depth": [0, 1, 1, 2, 2, 2, 2, 3, 3, 3, 3, 3, 3, 3, 3], "iLeaf": [7, 8, 9, 10, 11, 12, 13, 14]}], [{"feature": [6, 7, 2, 4, 2, 2, 0, -2, -2, -2, -2, -2, -2, -2, -2], "threshold": [14.5, 12.5, 5.88867188, 5.5, 6.65039062, 3.54492188, -2.11316681, 0, 0, 0, 0, 0, 0, 0, 0], "children_left": [1, 3, 5, 7, 9, 11, 13, -1, -1, -1, -1, -1, -1, -1, -1], "children_right": [2, 4, 6, 8, 10, 12, 14, -1, -1, -1, -1, -1, -1, -1, -1], "value": [0, 0, 0, 0, 0, 0, 0, -0.00403242558, 0.0244657099, -0.170799851, 0.142611787, -0.0441345125, -0.245245948, 0.45291844, -0.0183278918], "parent": [-1, 0, 0, 1, 1, 2, 2, 3, 3, 4, 4, 5, 5, 6, 6], "depth": [0, 1, 1, 2, 2, 2, 2, 3, 3, 3, 3, 3, 3, 3, 3], "iLeaf": [7, 8, 9, 10, 11, 12, 13, 14]}], [{"feature": [0, 1, 2, -2, -2, 0, 1, -2, -2, -2, -2, -2, -2, -2, -2], "threshold": [-3.13083601, 0.132418945, -10.2832031, 0, 0, 2.2571125, 1.99664402, 0, 0, 0, 0, -2.0, -2.0, -2.0, -2.0], "children_left": [1, 3, 5, 11, 13, 7, 9, -1, -1, -1, -1, -1, -1, -1, -1], "children_right": [2, 4, 6, 12, 14, 8, 10, -1, -1, -1, -1, -1, -1, -1, -1], "value": [0, 0, 0, 0.0094350446, -0.330725402, 0, 0, -0.167679489, 0.182596534, 0.000551287842, 0.109502576, 0.0094350446, 0.0094350446, -0.330725402, -0.330725402], "parent": [-1, 0, 0, 1, 1, 2, 2, 5, 5, 6, 6, 3, 3, 4, 4], "depth": [0, 1, 1, 2, 2, 2, 2, 3, 3, 3, 3, 3, 3, 3, 3], "iLeaf": [7, 8, 9, 10, 11, 12, 13, 14]}], [{"feature": [2, 2, 3, 2, 2, 4, 2, -2, -2, -2, -2, -2, -2, -2, -2], "threshold": [10.1074219, 9.46289062, 3.5, 8.99414062, 9.63867188, 4.5, 12.3339844, 0, 0, 0, 0, 0, 0, 0, 0], "children_left": [1, 3, 5, 7, 9, 11, 13, -1, -1, -1, -1, -1, -1, -1, -1], "children_right": [2, 4, 6, 8, 10, 12, 14, -1, -1, -1, -1, -1, -1, -1, -1], "value": [0, 0, 0, 0, 0, 0, 0, 0.00104829052, -0.216678098, 0.373526216, 0.0969519988, -0.200103551, 0.110281132, -0.307140827, -0.064602904], "parent": [-1, 0, 0, 1, 1, 2, 2, 3, 3, 4, 4, 5, 5, 6, 6], "depth": [0, 1, 1, 2, 2, 2, 2, 3, 3, 3, 3, 3, 3, 3, 3], "iLeaf": [7, 8, 9, 10, 11, 12, 13, 14]}], [{"feature": [0, 0, 0, 2, 3, 1, 0, -2, -2, -2, -2, -2, -2, -2, -2], "threshold": [-2.91925192, -2.94281697, -2.45672178, -5.24414062, 1.5, 1.10134315, -2.39924407, 0, 0, 0, 0, 0, 0, 0, 0], "children_left": [1, 3, 5, 7, 9, 11, 13, -1, -1, -1, -1, -1, -1, -1, -1], "children_right": [2, 4, 6, 8, 10, 12, 14, -1, -1, -1, -1, -1, -1, -1, -1], "value": [0, 0, 0, 0, 0, 0, 0, -0.24484387, 0.0270740855, -0.0822982341, -0.324772209, 0.0907359421, -0.215483472, -0.185880691, -3.39636645e-05], "parent": [-1, 0, 0, 1, 1, 2, 2, 3, 3, 4, 4, 5, 5, 6, 6], "depth": [0, 1, 1, 2, 2, 2, 2, 3, 3, 3, 3, 3, 3, 3, 3], "iLeaf": [7, 8, 9, 10, 11, 12, 13, 14]}], [{"feature": [6, 4, 4, 0, 7, 1, 2, -2, -2, -2, -2, -2, -2, -2, -2], "threshold": [13.5, 4.5, 4.5, 0.575242758, 2.5, -0.652826369, 6.47460938, 0, 0, 0, 0, 0, 0, 0, 0], "children_left": [1, 3, 5, 7, 9, 11, 13, -1, -1, -1, -1, -1, -1, -1, -1], "children_right": [2, 4, 6, 8, 10, 12, 14, -1, -1, -1, -1, -1, -1, -1, -1], "value": [0, 0, 0, 0, 0, 0, 0, -0.0606547035, 0.0184036195, 0.060800638, -0.00437900703, -0.0467400365, 0.0673611015, -0.0449972898, 0.0649202988], "parent": [-1, 0, 0, 1, 1, 2, 2, 3, 3, 4, 4, 5, 5, 6, 6], "depth": [0, 1, 1, 2, 2, 2, 2, 3, 3, 3, 3, 3, 3, 3, 3], "iLeaf": [7, 8, 9, 10, 11, 12, 13, 14]}], [{"feature": [0, 0, 1, 2, 6, 1, 6, -2, -2, -2, -2, -2, -2, -2, -2], "threshold": [1.5419842, 1.50555968, -0.948769391, -12.3925781, 12.5, -1.22630334, 8.5, 0, 0, 0, 0, 0, 0, 0, 0], "children_left": [1, 3, 5, 7, 9, 11, 13, -1, -1, -1, -1, -1, -1, -1, -1], "children_right": [2, 4, 6, 8, 10, 12, 14, -1, -1, -1, -1, -1, -1, -1, -1], "value": [0, 0, 0, 0, 0, 0, 0, -0.274920702, 0.00480692508, 0.106622979, 0.514482677, 0.0144181997, 0.203341812, 0.0935086384, -0.0645490289], "parent": [-1, 0, 0, 1, 1, 2, 2, 3, 3, 4, 4, 5, 5, 6, 6], "depth": [0, 1, 1, 2, 2, 2, 2, 3, 3, 3, 3, 3, 3, 3, 3], "iLeaf": [7, 8, 9, 10, 11, 12, 13, 14]}], [{"feature": [7, 1, 1, 1, 2, -2, -2, -2, -2, -2, -2, -2, -2, -2, -2], "threshold": [13.5, -2.1353488, 0.208443522, -2.3572135, 7.76367188, 0, 0, 0, 0, 0, 0, -2.0, -2.0, -2.0, -2.0], "children_left": [1, 3, 5, 7, 9, 11, 13, -1, -1, -1, -1, -1, -1, -1, -1], "children_right": [2, 4, 6, 8, 10, 12, 14, -1, -1, -1, -1, -1, -1, -1, -1], "value": [0, 0, 0, 0, 0, -0.2388428, -0.0198105052, -0.0439101532, 0.209286228, 0.00198513083, -0.0598159134, -0.2388428, -0.2388428, -0.0198105052, -0.0198105052], "parent": [-1, 0, 0, 1, 1, 2, 2, 3, 3, 4, 4, 5, 5, 6, 6], "depth": [0, 1, 1, 2, 2, 2, 2, 3, 3, 3, 3, 3, 3, 3, 3], "iLeaf": [7, 8, 9, 10, 11, 12, 13, 14]}], [{"feature": [0, 0, 2, 1, 7, 1, -2, -2, -2, -2, -2, -2, -2, -2, -2], "threshold": [2.88786793, 2.84199572, 7.23632812, 0.53555268, 0.5, 0.357565582, 0, 0, 0, 0, 0, 0, 0, -2.0, -2.0], "children_left": [1, 3, 5, 7, 9, 11, 13, -1, -1, -1, -1, -1, -1, -1, -1], "children_right": [2, 4, 6, 8, 10, 12, 14, -1, -1, -1, -1, -1, -1, -1, -1], "value": [0, 0, 0, 0, 0, 0, -0.31085211, -0.00816234853, 0.0186825357, 0.0719827339, -0.297827244, 0.14144668, -0.03073957, -0.31085211, -0.31085211], "parent": [-1, 0, 0, 1, 1, 2, 2, 3, 3, 4, 4, 5, 5, 6, 6], "depth": [0, 1, 1, 2, 2, 2, 2, 3, 3, 3, 3, 3, 3, 3, 3], "iLeaf": [7, 8, 9, 10, 11, 12, 13, 14]}], [{"feature": [5, 7, 2, 6, 6, 2, 3, -2, -2, -2, -2, -2, -2, -2, -2], "threshold": [0.5, 12.5, 7.00195312, 3.5, 9.5, 5.12695312, 4.5, 0, 0, 0, 0, 0, 0, 0, 0], "children_left": [1, 3, 5, 7, 9, 11, 13, -1, -1, -1, -1, -1, -1, -1, -1], "children_right": [2, 4, 6, 8, 10, 12, 14, -1, -1, -1, -1, -1, -1, -1, -1], "value": [0, 0, 0, 0, 0, 0, 0, 0.0949398428, 0.00661034696, -0.303733945, -0.0561724156, -0.0109383557, -0.161225393, 0.159479588, -0.284494489], "parent": [-1, 0, 0, 1, 1, 2, 2, 3, 3, 4, 4, 5, 5, 6, 6], "depth": [0, 1, 1, 2, 2, 2, 2, 3, 3, 3, 3, 3, 3, 3, 3], "iLeaf": [7, 8, 9, 10, 11, 12, 13, 14]}], [{"feature": [0, 0, 0, 6, -2, 4, 0, -2, -2, -2, -2, -2, -2, -2, -2], "threshold": [-3.00247478, -3.01290274, -2.95537519, 13.5, 0, 4.5, -2.91925192, 0, 0, 0, 0, 0, 0, -2.0, -2.0], "children_left": [1, 3, 5, 7, 13, 9, 11, -1, -1, -1, -1, -1, -1, -1, -1], "children_right": [2, 4, 6, 8, 14, 10, 12, -1, -1, -1, -1, -1, -1, -1, -1], "value": [0, 0, 0, 0, -0.350678802, 0, 0, 0.0351986587, -0.154040217, 0.446885586, 0.0610567853, -0.196044877, 0.00129592186, -0.350678802, -0.350678802], "parent": [-1, 0, 0, 1, 1, 2, 2, 3, 3, 5, 5, 6, 6, 4, 4], "depth": [0, 1, 1, 2, 2, 2, 2, 3, 3, 3, 3, 3, 3, 3, 3], "iLeaf": [7, 8, 9, 10, 11, 12, 13, 14]}], [{"feature": [0, 2, 0, 0, 0, 5, 2, -2, -2, -2, -2, -2, -2, -2, -2], "threshold": [-1.69204283, 2.72460938, -1.66349149, -1.7219913, -1.9430474, 0.5, 2.84179688, 0, 0, 0, 0, 0, 0, 0, 0], "children_left": [1, 3, 5, 7, 9, 11, 13, -1, -1, -1, -1, -1, -1, -1, -1], "children_right": [2, 4, 6, 8, 10, 12, 14, -1, -1, -1, -1, -1, -1, -1, -1], "value": [0, 0, 0, 0, 0, 0, 0, 0.0364464484, 0.319787443, -0.0983240306, 0.15800333, -0.409359187, -0.069040142, -0.015818581, 0.031031372], "parent": [-1, 0, 0, 1, 1, 2, 2, 3, 3, 4, 4, 5, 5, 6, 6], "depth": [0, 1, 1, 2, 2, 2, 2, 3, 3, 3, 3, 3, 3, 3, 3], "iLeaf": [7, 8, 9, 10, 11, 12, 13, 14]}], [{"feature": [2, 2, 0, 2, 6, -2, 4, -2, -2, -2, -2, -2, -2, -2, -2], "threshold": [10.1074219, 9.28710938, -2.26592708, 8.99414062, 13.5, 0, 4.5, 0, 0, 0, 0, 0, 0, -2.0, -2.0], "children_left": [1, 3, 5, 7, 9, 13, 11, -1, -1, -1, -1, -1, -1, -1, -1], "children_right": [2, 4, 6, 8, 10, 14, 12, -1, -1, -1, -1, -1, -1, -1, -1], "value": [0, 0, 0, 0, 0, -0.276698023, 0, 0.0006344617, -0.248095781, 0.0440833233, 0.333913535, -0.158588544, 0.0845056772, -0.276698023, -0.276698023], "parent": [-1, 0, 0, 1, 1, 2, 2, 3, 3, 4, 4, 6, 6, 5, 5], "depth": [0, 1, 1, 2, 2, 2, 2, 3, 3, 3, 3, 3, 3, 3, 3], "iLeaf": [7, 8, 9, 10, 11, 12, 13, 14]}], [{"feature": [0, 4, 0, -2, -2, -2, 0, -2, -2, -2, -2, -2, -2, -2, -2], "threshold": [-3.12930775, 5.5, -3.11104536, 0, 0, 0, -3.08190751, 0, 0, -2.0, -2.0, -2.0, -2.0, -2.0, -2.0], "children_left": [1, 3, 5, 9, 11, 13, 7, -1, -1, -1, -1, -1, -1, -1, -1], "children_right": [2, 4, 6, 10, 12, 14, 8, -1, -1, -1, -1, -1, -1, -1, -1], "value": [0, 0, 0, -0.26012215, 0.0851758942, 0.192717195, 0, -0.180048004, 0.000603835448, -0.26012215, -0.26012215, 0.0851758942, 0.0851758942, 0.192717195, 0.192717195], "parent": [-1, 0, 0, 1, 1, 2, 2, 6, 6, 3, 3, 4, 4, 5, 5], "depth": [0, 1, 1, 2, 2, 2, 2, 3, 3, 3, 3, 3, 3, 3, 3], "iLeaf": [7, 8, 9, 10, 11, 12, 13, 14]}], [{"feature": [0, 6, 0, 3, 3, 1, 0, -2, -2, -2, -2, -2, -2, -2, -2], "threshold": [-1.35934496, 8.5, -0.814320862, 3.5, 3.5, -0.237031877, -0.74776274, 0, 0, 0, 0, 0, 0, 0, 0], "children_left": [1, 3, 5, 7, 9, 11, 13, -1, -1, -1, -1, -1, -1, -1, -1], "children_right": [2, 4, 6, 8, 10, 12, 14, -1, -1, -1, -1, -1, -1, -1, -1], "value": [0, 0, 0, 0, 0, 0, 0, 0.023680279, -0.368041337, 0.0131712761, 0.108758248, 0.0210367925, -0.127991498, 0.163203791, -0.000803827483], "parent": [-1, 0, 0, 1, 1, 2, 2, 3, 3, 4, 4, 5, 5, 6, 6], "depth": [0, 1, 1, 2, 2, 2, 2, 3, 3, 3, 3, 3, 3, 3, 3], "iLeaf": [7, 8, 9, 10, 11, 12, 13, 14]}], [{"feature": [5, 7, 0, 1, 6, 0, -2, -2, -2, -2, -2, -2, -2, -2, -2], "threshold": [1.5, 1.5, 2.33172107, 1.2523942, 10.5, 1.08554053, 0, 0, 0, 0, 0, 0, 0, -2.0, -2.0], "children_left": [1, 3, 5, 7, 9, 11, 13, -1, -1, -1, -1, -1, -1, -1, -1], "children_right": [2, 4, 6, 8, 10, 12, 14, -1, -1, -1, -1, -1, -1, -1, -1], "value": [0, 0, 0, 0, 0, 0, -0.25757736, 0.0057509155, 0.105267815, -0.0453875735, 0.00492434157, -0.0994322449, 0.216530249, -0.25757736, -0.25757736], "parent": [-1, 0, 0, 1, 1, 2, 2, 3, 3, 4, 4, 5, 5, 6, 6], "depth": [0, 1, 1, 2, 2, 2, 2, 3, 3, 3, 3, 3, 3, 3, 3], "iLeaf": [7, 8, 9, 10, 11, 12, 13, 14]}], [{"feature": [6, 4, 0, 0, 1, 0, 4, -2, -2, -2, -2, -2, -2, -2, -2], "threshold": [12.5, 4.5, -1.95376086, 0.441123128, -1.23051751, -2.22156811, 4.5, 0, 0, 0, 0, 0, 0, 0, 0], "children_left": [1, 3, 5, 7, 9, 11, 13, -1, -1, -1, -1, -1, -1, -1, -1], "children_right": [2, 4, 6, 8, 10, 12, 14, -1, -1, -1, -1, -1, -1, -1, -1], "value": [0, 0, 0, 0, 0, 0, 0, -0.0634784028, 0.0146404924, 0.195279196, 0.027163377, 0.00174122339, 0.172557727, 0.0152780674, -0.0382534564], "parent": [-1, 0, 0, 1, 1, 2, 2, 3, 3, 4, 4, 5, 5, 6, 6], "depth": [0, 1, 1, 2, 2, 2, 2, 3, 3, 3, 3, 3, 3, 3, 3], "iLeaf": [7, 8, 9, 10, 11, 12, 13, 14]}], [{"feature": [6, 2, 0, 2, 1, 0, 6, -2, -2, -2, -2, -2, -2, -2, -2], "threshold": [1.5, 1.43554688, 1.79768944, -0.849609375, 0.804068327, 1.75810361, 8.5, 0, 0, 0, 0, 0, 0, 0, 0], "children_left": [1, 3, 5, 7, 9, 11, 13, -1, -1, -1, -1, -1, -1, -1, -1], "children_right": [2, 4, 6, 8, 10, 12, 14, -1, -1, -1, -1, -1, -1, -1, -1], "value": [0, 0, 0, 0, 0, 0, 0, 0.0745712519, -0.227941707, 0.0824895501, 0.313950568, 0.00121653406, 0.23665534, 0.110712029, -0.0356397852], "parent": [-1, 0, 0, 1, 1, 2, 2, 3, 3, 4, 4, 5, 5, 6, 6], "depth": [0, 1, 1, 2, 2, 2, 2, 3, 3, 3, 3, 3, 3, 3, 3], "iLeaf": [7, 8, 9, 10, 11, 12, 13, 14]}], [{"feature": [0, 0, 0, 0, 1, 1, 2, -2, -2, -2, -2, -2, -2, -2, -2], "threshold": [2.88786793, 2.78336477, 2.92168331, 2.76614428, -0.556728363, 0.422823846, -3.07617188, 0, 0, 0, 0, 0, 0, 0, 0], "children_left": [1, 3, 5, 7, 9, 11, 13, -1, -1, -1, -1, -1, -1, -1, -1], "children_right": [2, 4, 6, 8, 10, 12, 14, -1, -1, -1, -1, -1, -1, -1, -1], "value": [0, 0, 0, 0, 0, 0, 0, -8.90987722e-05, 0.206702173, -0.312948704, -0.0222460516, 0.3457461, 0.0933847576, 0.138802871, -0.0585633591], "parent": [-1, 0, 0, 1, 1, 2, 2, 3, 3, 4, 4, 5, 5, 6, 6], "depth": [0, 1, 1, 2, 2, 2, 2, 3, 3, 3, 3, 3, 3, 3, 3], "iLeaf": [7, 8, 9, 10, 11, 12, 13, 14]}]], "init_predict": [0, 0], "norm": 1}